<?xml version="1.0"?>
<opencv_storage>
<opencv_ml_svm>
  <format>3</format>
  <svmType>C_SVC</svmType>
  <kernel>
    <type>LINEAR</type></kernel>
  <C>2.5000000000000000e+00</C>
  <term_criteria><epsilon>1.1920928955078125e-07</epsilon>
    <iterations>1000</iterations></term_criteria>
  <var_count>10</var_count>
  <class_count>2</class_count>
  <class_labels type_id="opencv-matrix">
    <rows>2</rows>
    <cols>1</cols>
    <dt>i</dt>
    <data>
      0 1</data></class_labels>
  <sv_total>1</sv_total>
  <support_vectors>
    <_>
      -6.94616079e-01 -5.31923547e-02 1.21066892e+00 -6.60897315e-01
      9.87753212e-01 6.27242208e-01 -1.15008545e+00 -5.80055594e-01
      -8.68135691e-01 2.34804958e-01</_></support_vectors>
  <uncompressed_sv_total>9</uncompressed_sv_total>
  <uncompressed_support_vectors>
    <_>
      6.61187649e-01 1.05419672e+00 2.11268514e-01 -2.53325194e-01
      -2.43970945e-01 -8.14990520e-01 -4.66823310e-01 1.07011330e+00
      -4.35617000e-01 3.47660571e-01</_>
    <_>
      -3.05318892e-01 3.60829473e-01 6.08666837e-01 5.62354028e-01
      8.11857164e-01 -2.92292804e-01 5.50900340e-01 2.99756140e-01
      -9.58607972e-01 -9.76810932e-01</_>
    <_>
      -6.96970224e-02 -8.35636675e-01 1.83041704e+00 1.90533161e+00
      4.80897605e-01 2.58385111e-03 1.67584026e+00 -9.64973629e-01
      -1.24503613e+00 -1.13632870e+00</_>
    <_>
      9.94348586e-01 5.51921269e-03 2.53958497e-02 7.44037867e-01
      -1.31405935e-01 -4.47600365e-01 -9.65788007e-01 -1.50192836e-02
      -4.13731605e-01 8.45221579e-01</_>
    <_>
      -1.57870674e+00 -1.29572558e+00 -1.75496340e+00 -1.88606369e+00
      -1.28205955e+00 2.41259885e+00 -1.43538475e+00 -1.46256089e+00
      2.68121576e+00 1.13406157e+00</_>
    <_>
      1.41383934e+00 1.35359913e-01 1.16493070e+00 -1.89107224e-01
      -8.65600109e-01 -9.54869509e-01 4.36929405e-01 1.12624303e-01
      -1.77338362e-01 1.25034428e+00</_>
    <_>
      3.71171385e-01 2.33806324e+00 -4.68846828e-01 -9.11123514e-01
      -2.74649411e-01 -1.10573602e+00 -1.00493193e+00 2.40594482e+00
      -5.69054186e-01 1.29414037e-01</_>
    <_>
      -8.10727060e-01 -8.37223709e-01 -5.44373274e-01 7.57449985e-01
      6.19673193e-01 3.89372140e-01 1.10792565e+00 -4.00881112e-01
      7.78892264e-02 -9.47598696e-01</_>
    <_>
      1.42149985e+00 -9.91283417e-01 2.85431534e-01 1.78613901e+00
      -3.60147148e-01 -3.18384081e-01 -3.40262562e-01 -1.01699400e+00
      -1.67606771e-01 7.25825429e-01</_></uncompressed_support_vectors>
  <decision_functions>
    <_>
      <sv_count>1</sv_count>
      <rho>-2.7787807138243997e-02</rho>
      <alpha>
        1.</alpha>
      <index>
        0</index></_></decision_functions></opencv_ml_svm>
</opencv_storage>
